digraph Tree {
node [shape=box, style="filled, rounded", color="black", fontname=helvetica] ;
edge [fontname=helvetica] ;
0 [label=<age &le; 28.5<br/>gini = 0.17<br/>samples = 1999<br/>value = [1811, 188]<br/>class = Dont Have>, fillcolor="#e58139e5"] ;
1 [label=<antiguedad &le; 146.0<br/>gini = 0.015<br/>samples = 258<br/>value = [256, 2]<br/>class = Dont Have>, fillcolor="#e58139fd"] ;
0 -> 1 [labeldistance=2.5, labelangle=45, headlabel="True"] ;
2 [label=<age &le; 27.5<br/>gini = 0.008<br/>samples = 253<br/>value = [252, 1]<br/>class = Dont Have>, fillcolor="#e58139fe"] ;
1 -> 2 ;
3 [label=<gini = 0.0<br/>samples = 233<br/>value = [233, 0]<br/>class = Dont Have>, fillcolor="#e58139ff"] ;
2 -> 3 ;
4 [label=<antiguedad &le; 64.5<br/>gini = 0.095<br/>samples = 20<br/>value = [19, 1]<br/>class = Dont Have>, fillcolor="#e58139f2"] ;
2 -> 4 ;
5 [label=<gini = 0.0<br/>samples = 15<br/>value = [15, 0]<br/>class = Dont Have>, fillcolor="#e58139ff"] ;
4 -> 5 ;
6 [label=<antiguedad &le; 95.5<br/>gini = 0.32<br/>samples = 5<br/>value = [4, 1]<br/>class = Dont Have>, fillcolor="#e58139bf"] ;
4 -> 6 ;
7 [label=<gini = 0.0<br/>samples = 1<br/>value = [0, 1]<br/>class = HAVE>, fillcolor="#399de5ff"] ;
6 -> 7 ;
8 [label=<gini = 0.0<br/>samples = 4<br/>value = [4, 0]<br/>class = Dont Have>, fillcolor="#e58139ff"] ;
6 -> 8 ;
9 [label=<age &le; 26.5<br/>gini = 0.32<br/>samples = 5<br/>value = [4, 1]<br/>class = Dont Have>, fillcolor="#e58139bf"] ;
1 -> 9 ;
10 [label=<age &le; 24.0<br/>gini = 0.5<br/>samples = 2<br/>value = [1, 1]<br/>class = Dont Have>, fillcolor="#e5813900"] ;
9 -> 10 ;
11 [label=<gini = 0.0<br/>samples = 1<br/>value = [1, 0]<br/>class = Dont Have>, fillcolor="#e58139ff"] ;
10 -> 11 ;
12 [label=<gini = 0.0<br/>samples = 1<br/>value = [0, 1]<br/>class = HAVE>, fillcolor="#399de5ff"] ;
10 -> 12 ;
13 [label=<gini = 0.0<br/>samples = 3<br/>value = [3, 0]<br/>class = Dont Have>, fillcolor="#e58139ff"] ;
9 -> 13 ;
14 [label=<age &le; 59.5<br/>gini = 0.191<br/>samples = 1741<br/>value = [1555, 186]<br/>class = Dont Have>, fillcolor="#e58139e0"] ;
0 -> 14 [labeldistance=2.5, labelangle=-45, headlabel="False"] ;
15 [label=<antiguedad &le; 113.5<br/>gini = 0.215<br/>samples = 1386<br/>value = [1216, 170]<br/>class = Dont Have>, fillcolor="#e58139db"] ;
14 -> 15 ;
16 [label=<renta_log &le; 10.366<br/>gini = 0.121<br/>samples = 247<br/>value = [231, 16]<br/>class = Dont Have>, fillcolor="#e58139ed"] ;
15 -> 16 ;
17 [label=<antiguedad &le; 33.0<br/>gini = 0.444<br/>samples = 3<br/>value = [1, 2]<br/>class = HAVE>, fillcolor="#399de57f"] ;
16 -> 17 ;
18 [label=<gini = 0.0<br/>samples = 2<br/>value = [0, 2]<br/>class = HAVE>, fillcolor="#399de5ff"] ;
17 -> 18 ;
19 [label=<gini = 0.0<br/>samples = 1<br/>value = [1, 0]<br/>class = Dont Have>, fillcolor="#e58139ff"] ;
17 -> 19 ;
20 [label=<antiguedad &le; 12.5<br/>gini = 0.108<br/>samples = 244<br/>value = [230, 14]<br/>class = Dont Have>, fillcolor="#e58139ef"] ;
16 -> 20 ;
21 [label=<gini = 0.49<br/>samples = 7<br/>value = [4, 3]<br/>class = Dont Have>, fillcolor="#e5813940"] ;
20 -> 21 ;
22 [label=<gini = 0.089<br/>samples = 237<br/>value = [226, 11]<br/>class = Dont Have>, fillcolor="#e58139f3"] ;
20 -> 22 ;
23 [label=<antiguedad &le; 114.5<br/>gini = 0.234<br/>samples = 1139<br/>value = [985, 154]<br/>class = Dont Have>, fillcolor="#e58139d7"] ;
15 -> 23 ;
24 [label=<gini = 0.0<br/>samples = 1<br/>value = [0, 1]<br/>class = HAVE>, fillcolor="#399de5ff"] ;
23 -> 24 ;
25 [label=<renta_log &le; 11.076<br/>gini = 0.233<br/>samples = 1138<br/>value = [985, 153]<br/>class = Dont Have>, fillcolor="#e58139d7"] ;
23 -> 25 ;
26 [label=<gini = 0.157<br/>samples = 210<br/>value = [192, 18]<br/>class = Dont Have>, fillcolor="#e58139e7"] ;
25 -> 26 ;
27 [label=<gini = 0.249<br/>samples = 928<br/>value = [793, 135]<br/>class = Dont Have>, fillcolor="#e58139d4"] ;
25 -> 27 ;
28 [label=<renta_log &le; 13.961<br/>gini = 0.086<br/>samples = 355<br/>value = [339, 16]<br/>class = Dont Have>, fillcolor="#e58139f3"] ;
14 -> 28 ;
29 [label=<renta_log &le; 11.72<br/>gini = 0.081<br/>samples = 354<br/>value = [339, 15]<br/>class = Dont Have>, fillcolor="#e58139f4"] ;
28 -> 29 ;
30 [label=<age &le; 62.5<br/>gini = 0.036<br/>samples = 165<br/>value = [162, 3]<br/>class = Dont Have>, fillcolor="#e58139fa"] ;
29 -> 30 ;
31 [label=<gini = 0.121<br/>samples = 31<br/>value = [29, 2]<br/>class = Dont Have>, fillcolor="#e58139ed"] ;
30 -> 31 ;
32 [label=<gini = 0.015<br/>samples = 134<br/>value = [133, 1]<br/>class = Dont Have>, fillcolor="#e58139fd"] ;
30 -> 32 ;
33 [label=<renta_log &le; 11.725<br/>gini = 0.119<br/>samples = 189<br/>value = [177, 12]<br/>class = Dont Have>, fillcolor="#e58139ee"] ;
29 -> 33 ;
34 [label=<gini = 0.0<br/>samples = 1<br/>value = [0, 1]<br/>class = HAVE>, fillcolor="#399de5ff"] ;
33 -> 34 ;
35 [label=<gini = 0.11<br/>samples = 188<br/>value = [177, 11]<br/>class = Dont Have>, fillcolor="#e58139ef"] ;
33 -> 35 ;
36 [label=<gini = 0.0<br/>samples = 1<br/>value = [0, 1]<br/>class = HAVE>, fillcolor="#399de5ff"] ;
28 -> 36 ;
}
